svm_type c_svc
kernel_type rbf
gamma 16
nr_class 2
total_sv 141
rho 2.74269
label 1 -1
nr_sv 69 72
SV
2.828427125 1:0.044776119 2:0.029850746 3:0.014925373 4:0.044776119 7:0.014925373 8:0.10447761 9:0.014925373 10:0.014925373 11:0.014925373 12:0.014925373 13:0.029850746 14:0.029850746 15:0.044776119 16:0.10447761 19:0.014925373 20:0.044776119 22:0.014925373 24:0.074626866 26:0.029850746 27:0.014925373 28:0.014925373 29:0.044776119 30:0.029850746 31:0.059701493 32:0.13432836 
0.5853903683969378 1:0.028169014 4:0.028169014 8:0.14084507 9:0.042253521 12:0.042253521 13:0.028169014 15:0.042253521 16:0.14084507 20:0.028169014 21:0.014084507 23:0.014084507 24:0.11267606 25:0.028169014 26:0.042253521 30:0.028169014 31:0.042253521 32:0.1971831 
2.828427125 1:0.026666667 2:0.026666667 5:0.013333333 6:0.013333333 7:0.026666667 8:0.10666667 9:0.053333333 12:0.066666667 13:0.013333333 14:0.026666667 15:0.053333333 16:0.12 18:0.013333333 20:0.053333333 21:0.013333333 22:0.013333333 23:0.04 24:0.10666667 26:0.013333333 28:0.026666667 29:0.013333333 30:0.013333333 31:0.026666667 32:0.12 
0.3200330881551033 1:0.027027027 4:0.013513514 7:0.013513514 8:0.094594595 9:0.040540541 12:0.054054054 13:0.013513514 15:0.013513514 16:0.22972973 20:0.013513514 23:0.040540541 24:0.14864865 25:0.013513514 26:0.013513514 28:0.013513514 30:0.054054054 31:0.027027027 32:0.17567568 
0.3534371257504241 4:0.03125 5:0.015625 6:0.046875 7:0.03125 8:0.203125 9:0.015625 12:0.015625 13:0.015625 15:0.03125 16:0.125 18:0.03125 20:0.03125 23:0.015625 24:0.078125 28:0.03125 31:0.03125 32:0.25 
2.828427125 2:0.013888889 4:0.027777778 6:0.041666667 7:0.041666667 8:0.097222222 9:0.013888889 10:0.013888889 11:0.013888889 12:0.013888889 14:0.013888889 15:0.083333333 16:0.097222222 19:0.027777778 20:0.069444444 21:0.013888889 22:0.041666667 23:0.013888889 24:0.069444444 26:0.027777778 28:0.055555556 29:0.041666667 30:0.027777778 31:0.027777778 32:0.11111111 
2.828427125 2:0.013157895 4:0.026315789 6:0.039473684 8:0.092105263 11:0.013157895 12:0.078947368 13:0.026315789 14:0.026315789 15:0.026315789 16:0.17105263 17:0.013157895 20:0.026315789 22:0.026315789 23:0.078947368 24:0.13157895 26:0.026315789 28:0.013157895 29:0.013157895 31:0.039473684 32:0.11842105 
2.828427125 1:0.029411765 2:0.019607843 4:0.019607843 5:0.0098039216 6:0.029411765 7:0.019607843 8:0.16666667 9:0.0098039216 10:0.0098039216 12:0.019607843 13:0.0098039216 14:0.0098039216 15:0.058823529 16:0.11764706 20:0.058823529 21:0.0098039216 22:0.0098039216 23:0.0098039216 24:0.058823529 25:0.0098039216 26:0.0098039216 28:0.029411765 29:0.0098039216 30:0.019607843 31:0.039215686 32:0.20588235 
0.9142482867951678 2:0.0125 4:0.025 5:0.025 7:0.0125 8:0.075 9:0.025 10:0.05 11:0.0125 12:0.025 15:0.075 16:0.15 18:0.0125 19:0.0125 20:0.075 22:0.025 23:0.0375 24:0.1125 28:0.025 29:0.05 30:0.05 31:0.025 32:0.0875 
2.828427125 4:0.012345679 5:0.024691358 7:0.024691358 8:0.11111111 10:0.037037037 12:0.061728395 15:0.074074074 16:0.098765432 18:0.037037037 20:0.074074074 22:0.049382716 23:0.049382716 24:0.061728395 26:0.012345679 28:0.024691358 29:0.061728395 30:0.012345679 31:0.024691358 32:0.14814815 
2.828427125 2:0.024096386 4:0.036144578 5:0.036144578 6:0.012048193 7:0.036144578 8:0.084337349 9:0.012048193 10:0.048192771 12:0.048192771 13:0.012048193 14:0.012048193 15:0.072289157 16:0.072289157 17:0.012048193 18:0.024096386 20:0.072289157 21:0.012048193 22:0.036144578 23:0.024096386 24:0.072289157 26:0.012048193 28:0.036144578 29:0.048192771 31:0.060240964 32:0.084337349 
2.828427125 2:0.022988506 4:0.022988506 5:0.011494253 7:0.045977011 8:0.068965517 9:0.011494253 10:0.011494253 12:0.045977011 14:0.022988506 15:0.057471264 16:0.13793103 17:0.022988506 18:0.011494253 20:0.057471264 21:0.011494253 22:0.011494253 23:0.045977011 24:0.10344828 25:0.011494253 26:0.011494253 28:0.034482759 29:0.034482759 30:0.045977011 31:0.011494253 32:0.12643678 
2.828427125 1:0.026315789 4:0.013157895 5:0.013157895 7:0.013157895 8:0.092105263 10:0.013157895 12:0.065789474 15:0.026315789 16:0.18421053 18:0.026315789 20:0.026315789 21:0.013157895 23:0.039473684 24:0.11842105 25:0.026315789 26:0.026315789 28:0.013157895 29:0.039473684 30:0.026315789 31:0.039473684 32:0.15789474 
2.828427125 1:0.013513514 2:0.013513514 4:0.013513514 5:0.040540541 6:0.013513514 7:0.013513514 8:0.081081081 10:0.027027027 11:0.027027027 12:0.013513514 14:0.027027027 15:0.054054054 16:0.18918919 18:0.027027027 20:0.054054054 22:0.013513514 24:0.13513514 25:0.013513514 27:0.027027027 28:0.013513514 29:0.027027027 31:0.027027027 32:0.13513514 
2.828427125 2:0.038461538 4:0.025641026 5:0.012820513 6:0.025641026 7:0.012820513 8:0.1025641 9:0.012820513 12:0.025641026 13:0.012820513 15:0.08974359 16:0.14102564 18:0.012820513 20:0.064102564 21:0.038461538 22:0.025641026 23:0.025641026 24:0.1025641 26:0.012820513 28:0.038461538 30:0.012820513 31:0.025641026 32:0.14102564 
2.828427125 1:0.021052632 2:0.010526316 4:0.042105263 6:0.021052632 8:0.063157895 9:0.021052632 11:0.021052632 12:0.063157895 13:0.010526316 15:0.021052632 16:0.14736842 17:0.031578947 18:0.042105263 19:0.021052632 20:0.010526316 21:0.021052632 22:0.052631579 23:0.052631579 24:0.13684211 25:0.010526316 26:0.010526316 29:0.031578947 31:0.042105263 32:0.094736842 
2.828427125 2:0.032608696 3:0.010869565 4:0.043478261 5:0.010869565 6:0.02173913 7:0.02173913 8:0.10869565 9:0.010869565 12:0.065217391 13:0.010869565 14:0.054347826 15:0.02173913 16:0.10869565 20:0.02173913 21:0.010869565 22:0.02173913 23:0.065217391 24:0.10869565 25:0.010869565 26:0.02173913 27:0.010869565 28:0.032608696 29:0.02173913 30:0.010869565 31:0.054347826 32:0.086956522 
2.828427125 1:0.0087719298 2:0.026315789 4:0.035087719 5:0.01754386 6:0.035087719 7:0.043859649 8:0.061403509 10:0.01754386 11:0.0087719298 12:0.052631579 14:0.01754386 15:0.035087719 16:0.14035088 17:0.0087719298 19:0.0087719298 20:0.026315789 21:0.035087719 22:0.052631579 23:0.035087719 24:0.13157895 25:0.0087719298 26:0.0087719298 28:0.052631579 30:0.0087719298 31:0.052631579 32:0.070175439 
2.828427125 2:0.03030303 4:0.045454545 6:0.015151515 7:0.03030303 8:0.060606061 12:0.03030303 13:0.03030303 14:0.03030303 15:0.045454545 16:0.18181818 17:0.015151515 18:0.015151515 20:0.060606061 21:0.015151515 22:0.015151515 23:0.015151515 24:0.13636364 26:0.015151515 28:0.03030303 29:0.015151515 30:0.015151515 31:0.075757576 32:0.075757576 
2.199711742109483 1:0.010752688 2:0.032258065 3:0.021505376 4:0.021505376 5:0.032258065 6:0.010752688 7:0.032258065 8:0.13978495 12:0.032258065 14:0.021505376 15:0.010752688 16:0.13978495 17:0.010752688 22:0.021505376 23:0.032258065 24:0.075268817 25:0.021505376 26:0.010752688 27:0.021505376 28:0.043010753 29:0.010752688 30:0.021505376 31:0.021505376 32:0.20430108 
2.828427125 2:0.013157895 4:0.013157895 5:0.052631579 7:0.026315789 8:0.078947368 10:0.013157895 11:0.013157895 12:0.065789474 14:0.013157895 15:0.052631579 16:0.13157895 17:0.026315789 18:0.026315789 19:0.013157895 20:0.039473684 22:0.013157895 23:0.026315789 24:0.13157895 26:0.013157895 28:0.026315789 29:0.013157895 30:0.052631579 31:0.039473684 32:0.10526316 
2.828427125 2:0.010526316 4:0.010526316 5:0.031578947 6:0.021052632 7:0.031578947 8:0.094736842 9:0.010526316 10:0.021052632 11:0.010526316 12:0.073684211 14:0.042105263 15:0.042105263 16:0.11578947 17:0.010526316 19:0.010526316 20:0.042105263 21:0.010526316 22:0.021052632 23:0.063157895 24:0.094736842 25:0.021052632 26:0.010526316 28:0.031578947 30:0.031578947 31:0.021052632 32:0.11578947 
2.828427125 1:0.029850746 2:0.044776119 4:0.029850746 5:0.029850746 6:0.014925373 7:0.044776119 8:0.13432836 9:0.014925373 10:0.029850746 12:0.029850746 13:0.014925373 15:0.044776119 16:0.059701493 17:0.044776119 18:0.014925373 20:0.044776119 21:0.029850746 23:0.029850746 24:0.059701493 26:0.014925373 28:0.044776119 29:0.029850746 31:0.029850746 32:0.13432836 
2.828427125 4:0.036144578 6:0.024096386 8:0.036144578 11:0.024096386 12:0.048192771 14:0.10843373 15:0.048192771 16:0.21686747 19:0.024096386 20:0.048192771 23:0.060240964 24:0.14457831 27:0.012048193 28:0.012048193 30:0.048192771 31:0.036144578 32:0.072289157 
2.828427125 1:0.08974359 2:0.064102564 4:0.025641026 5:0.025641026 7:0.025641026 8:0.076923077 9:0.012820513 10:0.012820513 11:0.012820513 12:0.012820513 13:0.038461538 15:0.038461538 16:0.14102564 19:0.012820513 20:0.025641026 21:0.012820513 23:0.012820513 24:0.1025641 25:0.025641026 26:0.025641026 28:0.038461538 29:0.025641026 31:0.025641026 32:0.11538462 
2.771255639962668 1:0.02247191 2:0.04494382 4:0.06741573 5:0.02247191 7:0.033707865 8:0.12359551 10:0.011235955 13:0.011235955 14:0.02247191 15:0.056179775 16:0.1011236 20:0.04494382 21:0.011235955 22:0.033707865 24:0.078651685 25:0.011235955 28:0.056179775 29:0.011235955 30:0.033707865 31:0.078651685 32:0.12359551 
2.828427125 1:0.041237113 2:0.030927835 4:0.010309278 5:0.020618557 6:0.020618557 7:0.020618557 8:0.092783505 9:0.010309278 10:0.030927835 12:0.06185567 13:0.020618557 14:0.020618557 15:0.072164948 16:0.082474227 17:0.020618557 20:0.051546392 21:0.010309278 22:0.010309278 23:0.041237113 24:0.092783505 25:0.051546392 26:0.010309278 28:0.020618557 29:0.020618557 31:0.010309278 32:0.12371134 
2.828427125 1:0.04950495 2:0.01980198 4:0.0099009901 5:0.0099009901 6:0.01980198 8:0.069306931 9:0.01980198 10:0.0099009901 11:0.01980198 12:0.03960396 13:0.0099009901 14:0.01980198 15:0.04950495 16:0.16831683 17:0.03960396 19:0.0099009901 20:0.069306931 21:0.0099009901 22:0.03960396 23:0.059405941 24:0.099009901 25:0.0099009901 28:0.0099009901 30:0.02970297 31:0.01980198 32:0.089108911 
2.828427125 1:0.050632911 2:0.037974684 5:0.012658228 7:0.025316456 8:0.063291139 9:0.012658228 10:0.012658228 11:0.012658228 12:0.063291139 13:0.012658228 15:0.063291139 16:0.11392405 18:0.037974684 19:0.012658228 20:0.050632911 21:0.037974684 22:0.012658228 23:0.037974684 24:0.12658228 26:0.025316456 28:0.025316456 29:0.050632911 30:0.012658228 31:0.012658228 32:0.075949367 
2.828427125 2:0.015625 4:0.015625 5:0.046875 6:0.015625 7:0.046875 8:0.078125 10:0.03125 11:0.015625 12:0.0625 15:0.0625 16:0.078125 18:0.015625 20:0.0625 21:0.03125 22:0.015625 23:0.046875 24:0.0625 26:0.03125 27:0.015625 28:0.046875 29:0.015625 30:0.0625 31:0.03125 32:0.09375 
2.828427125 2:0.014285714 4:0.014285714 6:0.042857143 7:0.028571429 8:0.071428571 10:0.014285714 12:0.057142857 14:0.028571429 15:0.071428571 16:0.17142857 20:0.071428571 21:0.014285714 22:0.014285714 23:0.057142857 24:0.12857143 28:0.028571429 29:0.014285714 30:0.028571429 31:0.014285714 32:0.11428571 
1.508519010858969 2:0.0098039216 3:0.019607843 4:0.0098039216 6:0.039215686 7:0.019607843 8:0.10784314 10:0.019607843 11:0.0098039216 12:0.019607843 15:0.019607843 16:0.20588235 17:0.0098039216 18:0.019607843 20:0.029411765 22:0.0098039216 23:0.019607843 24:0.10784314 25:0.0098039216 27:0.019607843 28:0.019607843 29:0.049019608 30:0.0098039216 31:0.019607843 32:0.19607843 
2.828427125 2:0.042253521 4:0.028169014 6:0.028169014 8:0.084507042 12:0.084507042 13:0.014084507 15:0.042253521 16:0.16901408 20:0.028169014 21:0.042253521 22:0.042253521 23:0.084507042 24:0.12676056 26:0.014084507 28:0.014084507 31:0.028169014 32:0.12676056 
2.828427125 1:0.020833333 2:0.041666667 4:0.0625 5:0.041666667 7:0.0625 8:0.0625 10:0.041666667 12:0.020833333 13:0.020833333 15:0.020833333 16:0.14583333 20:0.020833333 21:0.020833333 23:0.020833333 24:0.10416667 25:0.041666667 28:0.041666667 30:0.020833333 31:0.041666667 32:0.14583333 
2.828427125 1:0.010204082 2:0.030612245 4:0.030612245 6:0.010204082 8:0.10204082 9:0.030612245 12:0.051020408 13:0.030612245 15:0.030612245 16:0.15306122 17:0.020408163 18:0.010204082 20:0.040816327 22:0.030612245 23:0.071428571 24:0.091836735 25:0.030612245 26:0.010204082 28:0.020408163 29:0.020408163 30:0.030612245 31:0.040816327 32:0.10204082 
2.828427125 1:0.04950495 4:0.01980198 5:0.01980198 7:0.02970297 8:0.089108911 9:0.0099009901 12:0.01980198 13:0.0099009901 15:0.069306931 16:0.13861386 17:0.01980198 18:0.02970297 20:0.059405941 21:0.0099009901 22:0.01980198 23:0.02970297 24:0.099009901 25:0.0099009901 26:0.01980198 28:0.04950495 29:0.0099009901 30:0.059405941 31:0.01980198 32:0.10891089 
2.828427125 4:0.012195122 5:0.012195122 6:0.036585366 7:0.024390244 8:0.085365854 10:0.036585366 11:0.012195122 12:0.1097561 14:0.024390244 15:0.048780488 16:0.097560976 18:0.012195122 19:0.012195122 20:0.036585366 22:0.024390244 23:0.073170732 24:0.1097561 28:0.012195122 29:0.036585366 30:0.036585366 31:0.024390244 32:0.12195122 
2.188694918399168 2:0.016666667 4:0.016666667 6:0.016666667 7:0.016666667 8:0.1 12:0.11666667 13:0.016666667 15:0.05 16:0.11666667 20:0.033333333 21:0.016666667 22:0.016666667 23:0.083333333 24:0.1 26:0.016666667 30:0.066666667 31:0.016666667 32:0.18333333 
2.828427125 1:0.019230769 2:0.028846154 5:0.019230769 6:0.0096153846 7:0.028846154 8:0.067307692 9:0.0096153846 10:0.028846154 12:0.086538462 13:0.019230769 15:0.028846154 16:0.125 17:0.057692308 18:0.0096153846 20:0.019230769 21:0.028846154 22:0.0096153846 23:0.057692308 24:0.11538462 25:0.028846154 26:0.019230769 28:0.038461538 29:0.019230769 30:0.019230769 31:0.028846154 32:0.076923077 
2.828427125 1:0.011235955 3:0.011235955 5:0.011235955 6:0.06741573 7:0.08988764 8:0.11235955 9:0.011235955 12:0.033707865 15:0.02247191 16:0.12359551 17:0.011235955 20:0.02247191 22:0.02247191 23:0.02247191 24:0.08988764 25:0.011235955 26:0.02247191 27:0.011235955 28:0.08988764 29:0.011235955 30:0.033707865 31:0.011235955 32:0.14606742 
2.828427125 1:0.039215686 4:0.019607843 5:0.019607843 6:0.019607843 7:0.039215686 8:0.098039216 9:0.019607843 12:0.058823529 14:0.0098039216 15:0.029411765 16:0.12745098 17:0.029411765 18:0.0098039216 20:0.019607843 21:0.0098039216 22:0.019607843 23:0.058823529 24:0.088235294 25:0.0098039216 26:0.019607843 28:0.049019608 30:0.049019608 31:0.019607843 32:0.1372549 
2.828427125 1:0.01980198 2:0.01980198 4:0.01980198 6:0.0099009901 8:0.10891089 9:0.04950495 12:0.059405941 13:0.01980198 14:0.0099009901 15:0.04950495 16:0.10891089 17:0.01980198 18:0.02970297 20:0.03960396 21:0.02970297 23:0.04950495 24:0.099009901 25:0.02970297 26:0.02970297 28:0.0099009901 29:0.02970297 30:0.0099009901 31:0.02970297 32:0.11881188 
2.828427125 1:0.03 4:0.01 6:0.04 7:0.01 8:0.07 11:0.01 12:0.1 14:0.01 15:0.03 16:0.15 17:0.03 18:0.02 19:0.01 20:0.02 21:0.03 22:0.05 23:0.08 24:0.15 25:0.01 26:0.01 28:0.01 30:0.01 31:0.02 32:0.09 
2.484535897193544 1:0.0098039216 2:0.0098039216 4:0.029411765 5:0.0098039216 6:0.029411765 7:0.019607843 8:0.078431373 12:0.039215686 14:0.019607843 15:0.088235294 16:0.15686275 18:0.0098039216 20:0.019607843 21:0.0098039216 22:0.039215686 23:0.019607843 24:0.14705882 28:0.078431373 30:0.039215686 31:0.039215686 32:0.10784314 
2.828427125 6:0.047619048 7:0.031746032 8:0.11111111 12:0.047619048 14:0.047619048 15:0.095238095 16:0.14285714 20:0.095238095 22:0.031746032 23:0.031746032 24:0.095238095 28:0.031746032 30:0.015873016 31:0.015873016 32:0.15873016 
2.828427125 1:0.014705882 2:0.029411765 4:0.029411765 5:0.029411765 6:0.014705882 7:0.014705882 8:0.088235294 10:0.014705882 12:0.014705882 15:0.058823529 16:0.17647059 17:0.029411765 18:0.029411765 20:0.029411765 21:0.044117647 23:0.029411765 24:0.13235294 26:0.014705882 28:0.058823529 29:0.014705882 31:0.029411765 32:0.10294118 
2.828427125 2:0.012987013 4:0.012987013 5:0.012987013 6:0.025974026 8:0.077922078 10:0.051948052 11:0.025974026 12:0.1038961 13:0.012987013 14:0.038961039 15:0.038961039 16:0.1038961 19:0.025974026 20:0.025974026 22:0.012987013 23:0.090909091 24:0.090909091 26:0.025974026 28:0.012987013 29:0.064935065 30:0.012987013 31:0.025974026 32:0.090909091 
2.828427125 6:0.042857143 7:0.014285714 8:0.1 10:0.028571429 12:0.11428571 14:0.028571429 15:0.071428571 16:0.1 19:0.014285714 20:0.057142857 22:0.042857143 23:0.085714286 24:0.071428571 28:0.014285714 29:0.028571429 30:0.028571429 31:0.014285714 32:0.14285714 
2.828427125 2:0.028169014 4:0.014084507 6:0.014084507 8:0.098591549 12:0.056338028 13:0.014084507 14:0.014084507 15:0.070422535 16:0.16901408 20:0.070422535 21:0.042253521 22:0.028169014 23:0.056338028 24:0.11267606 26:0.028169014 28:0.014084507 30:0.014084507 31:0.028169014 32:0.12676056 
1.584097722696889 4:0.012345679 6:0.012345679 7:0.024691358 8:0.14814815 9:0.012345679 12:0.012345679 13:0.012345679 15:0.049382716 16:0.17283951 17:0.024691358 18:0.024691358 23:0.012345679 24:0.13580247 25:0.012345679 26:0.024691358 28:0.061728395 29:0.037037037 32:0.20987654 
2.828427125 1:0.024691358 2:0.024691358 4:0.049382716 5:0.024691358 6:0.037037037 7:0.024691358 8:0.12345679 9:0.012345679 12:0.012345679 15:0.061728395 16:0.11111111 18:0.012345679 20:0.037037037 21:0.012345679 22:0.024691358 23:0.012345679 24:0.11111111 25:0.024691358 26:0.012345679 28:0.049382716 29:0.012345679 30:0.012345679 31:0.049382716 32:0.12345679 
2.828427125 2:0.016129032 4:0.080645161 6:0.016129032 8:0.11290323 10:0.032258065 12:0.032258065 15:0.048387097 16:0.096774194 17:0.016129032 20:0.048387097 21:0.016129032 23:0.016129032 24:0.096774194 25:0.032258065 26:0.032258065 29:0.064516129 30:0.032258065 31:0.096774194 32:0.11290323 
2.828427125 2:0.015873016 4:0.047619048 5:0.015873016 6:0.015873016 7:0.031746032 8:0.079365079 10:0.031746032 12:0.031746032 14:0.015873016 15:0.047619048 16:0.15873016 18:0.015873016 20:0.047619048 22:0.015873016 23:0.015873016 24:0.095238095 26:0.015873016 28:0.031746032 29:0.063492063 31:0.063492063 32:0.14285714 
2.828427125 2:0.012048193 5:0.024096386 6:0.012048193 7:0.024096386 8:0.10843373 9:0.036144578 11:0.012048193 12:0.048192771 14:0.012048193 15:0.072289157 16:0.10843373 17:0.012048193 19:0.012048193 20:0.060240964 21:0.024096386 23:0.012048193 24:0.10843373 25:0.012048193 26:0.048192771 28:0.024096386 29:0.012048193 30:0.048192771 31:0.024096386 32:0.13253012 
2.828427125 1:0.017241379 2:0.017241379 4:0.051724138 5:0.017241379 6:0.017241379 7:0.034482759 8:0.10344828 12:0.017241379 15:0.034482759 16:0.13793103 17:0.051724138 20:0.034482759 22:0.017241379 23:0.017241379 24:0.12068966 25:0.017241379 26:0.034482759 28:0.034482759 29:0.034482759 30:0.017241379 31:0.051724138 32:0.12068966 
0.7099844594555565 2:0.017241379 4:0.034482759 6:0.034482759 8:0.15517241 12:0.086206897 13:0.017241379 15:0.017241379 16:0.12068966 17:0.017241379 18:0.017241379 20:0.017241379 21:0.017241379 23:0.068965517 24:0.086206897 25:0.017241379 30:0.034482759 31:0.051724138 32:0.18965517 
2.828427125 1:0.038461538 2:0.012820513 4:0.012820513 5:0.012820513 6:0.012820513 7:0.012820513 8:0.064102564 12:0.038461538 15:0.051282051 16:0.21794872 17:0.012820513 18:0.012820513 20:0.038461538 21:0.012820513 22:0.025641026 23:0.025641026 24:0.16666667 25:0.012820513 26:0.025641026 28:0.025641026 29:0.025641026 31:0.025641026 32:0.11538462 
2.828427125 2:0.014084507 4:0.042253521 5:0.014084507 8:0.084507042 9:0.014084507 11:0.028169014 12:0.042253521 13:0.014084507 14:0.056338028 15:0.042253521 16:0.14084507 17:0.014084507 18:0.014084507 19:0.014084507 20:0.056338028 22:0.014084507 23:0.028169014 24:0.11267606 25:0.028169014 30:0.056338028 31:0.070422535 32:0.098591549 
0.4200966310431844 4:0.028169014 6:0.014084507 7:0.042253521 8:0.042253521 11:0.014084507 12:0.084507042 13:0.014084507 15:0.042253521 16:0.14084507 18:0.014084507 19:0.014084507 20:0.028169014 22:0.070422535 23:0.056338028 24:0.15492958 26:0.014084507 28:0.042253521 29:0.014084507 30:0.070422535 31:0.042253521 32:0.056338028 
2.828427125 2:0.011904762 4:0.035714286 6:0.011904762 7:0.023809524 8:0.035714286 9:0.011904762 10:0.011904762 12:0.047619048 13:0.023809524 14:0.011904762 15:0.035714286 16:0.22619048 20:0.023809524 21:0.011904762 22:0.011904762 23:0.023809524 24:0.21428571 25:0.023809524 26:0.023809524 28:0.023809524 29:0.011904762 30:0.023809524 31:0.047619048 32:0.071428571 
2.828427125 1:0.014925373 2:0.029850746 4:0.014925373 5:0.044776119 6:0.014925373 8:0.029850746 10:0.029850746 11:0.014925373 12:0.044776119 13:0.014925373 15:0.059701493 16:0.2238806 18:0.014925373 20:0.059701493 21:0.014925373 23:0.044776119 24:0.17910448 26:0.014925373 28:0.014925373 29:0.014925373 30:0.014925373 31:0.029850746 32:0.059701493 
1.622940746852767 1:0.012195122 2:0.024390244 5:0.012195122 7:0.036585366 8:0.17073171 12:0.06097561 13:0.024390244 14:0.012195122 15:0.024390244 16:0.1097561 18:0.012195122 20:0.024390244 21:0.012195122 22:0.012195122 23:0.048780488 24:0.06097561 25:0.024390244 26:0.012195122 28:0.048780488 30:0.036585366 31:0.024390244 32:0.19512195 
2.828427125 1:0.011627907 2:0.023255814 5:0.034883721 6:0.011627907 7:0.058139535 8:0.081395349 9:0.023255814 10:0.011627907 12:0.046511628 14:0.023255814 15:0.011627907 16:0.18604651 18:0.011627907 20:0.023255814 23:0.046511628 24:0.13953488 25:0.034883721 26:0.011627907 28:0.058139535 29:0.023255814 30:0.011627907 31:0.011627907 32:0.10465116 
2.828427125 1:0.0095238095 2:0.019047619 4:0.028571429 5:0.0095238095 6:0.019047619 8:0.1047619 9:0.028571429 10:0.028571429 12:0.076190476 13:0.019047619 14:0.0095238095 15:0.038095238 16:0.13333333 20:0.019047619 21:0.0095238095 23:0.038095238 24:0.12380952 25:0.0095238095 26:0.028571429 28:0.0095238095 29:0.038095238 30:0.0095238095 31:0.057142857 32:0.13333333 
2.617469341591595 2:0.050632911 4:0.012658228 5:0.025316456 7:0.012658228 8:0.16455696 10:0.012658228 12:0.063291139 13:0.012658228 15:0.037974684 16:0.088607595 17:0.025316456 18:0.012658228 20:0.012658228 21:0.025316456 22:0.012658228 23:0.037974684 24:0.11392405 25:0.037974684 28:0.037974684 29:0.012658228 30:0.012658228 31:0.037974684 32:0.13924051 
2.828427125 1:0.014705882 2:0.044117647 4:0.029411765 5:0.014705882 6:0.029411765 8:0.073529412 9:0.014705882 11:0.029411765 12:0.058823529 13:0.044117647 15:0.058823529 16:0.11764706 19:0.029411765 20:0.029411765 21:0.014705882 22:0.014705882 23:0.044117647 24:0.11764706 26:0.029411765 28:0.014705882 30:0.044117647 31:0.029411765 32:0.10294118 
0.1632443451158982 4:0.018181818 8:0.14545455 12:0.072727273 14:0.054545455 16:0.23636364 23:0.054545455 24:0.14545455 31:0.036363636 32:0.23636364 
2.828427125 4:0.027777778 6:0.041666667 7:0.055555556 8:0.069444444 12:0.097222222 14:0.027777778 15:0.013888889 16:0.13888889 22:0.013888889 23:0.055555556 24:0.11111111 26:0.027777778 28:0.069444444 29:0.027777778 30:0.055555556 31:0.069444444 32:0.097222222 
2.828427125 4:0.015151515 5:0.015151515 6:0.03030303 7:0.03030303 8:0.060606061 10:0.015151515 12:0.060606061 14:0.015151515 15:0.045454545 16:0.18181818 18:0.045454545 19:0.03030303 20:0.045454545 21:0.03030303 22:0.045454545 23:0.060606061 24:0.10606061 28:0.03030303 29:0.015151515 31:0.015151515 32:0.10606061 
-2.533318693306074 2:0.020408163 6:0.040816327 8:0.06122449 12:0.06122449 13:0.020408163 15:0.10204082 16:0.18367347 17:0.040816327 20:0.081632653 23:0.040816327 24:0.16326531 26:0.020408163 29:0.020408163 30:0.020408163 32:0.12244898 
-2.828427125 2:0.015151515 4:0.03030303 5:0.03030303 6:0.015151515 7:0.060606061 8:0.090909091 9:0.045454545 12:0.060606061 14:0.015151515 15:0.045454545 16:0.075757576 18:0.03030303 20:0.03030303 22:0.03030303 23:0.045454545 24:0.075757576 25:0.015151515 26:0.015151515 28:0.060606061 29:0.03030303 30:0.03030303 31:0.03030303 32:0.12121212 
-2.461404319692013 1:0.032258065 2:0.016129032 4:0.016129032 7:0.016129032 8:0.064516129 9:0.048387097 12:0.048387097 15:0.048387097 16:0.17741935 17:0.032258065 18:0.016129032 20:0.048387097 21:0.032258065 23:0.016129032 24:0.096774194 26:0.032258065 29:0.032258065 30:0.016129032 31:0.032258065 32:0.17741935 
-2.828427125 1:0.013513514 2:0.013513514 4:0.013513514 5:0.013513514 6:0.013513514 7:0.013513514 8:0.054054054 9:0.013513514 10:0.027027027 11:0.013513514 12:0.081081081 14:0.013513514 15:0.027027027 16:0.17567568 19:0.013513514 20:0.027027027 21:0.027027027 23:0.081081081 24:0.10810811 26:0.027027027 28:0.027027027 29:0.027027027 30:0.054054054 31:0.027027027 32:0.094594595 
-1.022958193111955 1:0.013513514 2:0.027027027 4:0.027027027 5:0.013513514 6:0.027027027 7:0.027027027 8:0.054054054 11:0.013513514 12:0.054054054 15:0.040540541 16:0.13513514 17:0.040540541 18:0.013513514 19:0.013513514 20:0.040540541 21:0.040540541 22:0.027027027 23:0.040540541 24:0.10810811 25:0.013513514 26:0.027027027 28:0.040540541 29:0.013513514 30:0.040540541 31:0.054054054 32:0.054054054 
-2.828427125 1:0.035714286 2:0.053571429 7:0.017857143 8:0.089285714 9:0.035714286 12:0.035714286 13:0.035714286 15:0.053571429 16:0.16071429 17:0.035714286 20:0.053571429 21:0.017857143 23:0.035714286 24:0.14285714 25:0.035714286 26:0.017857143 28:0.017857143 29:0.017857143 32:0.10714286 
-2.828427125 1:0.055555556 2:0.018518519 4:0.018518519 5:0.018518519 6:0.037037037 7:0.018518519 8:0.11111111 9:0.018518519 12:0.074074074 15:0.074074074 16:0.074074074 17:0.018518519 18:0.018518519 20:0.037037037 22:0.055555556 23:0.055555556 24:0.074074074 28:0.037037037 29:0.018518519 31:0.018518519 32:0.14814815 
-2.828427125 1:0.028985507 4:0.014492754 7:0.043478261 8:0.072463768 9:0.014492754 12:0.043478261 15:0.057971014 16:0.14492754 17:0.014492754 18:0.014492754 20:0.057971014 21:0.014492754 23:0.028985507 24:0.086956522 25:0.014492754 26:0.043478261 28:0.028985507 29:0.043478261 30:0.057971014 31:0.014492754 32:0.15942029 
-2.828427125 2:0.013888889 4:0.013888889 6:0.041666667 7:0.027777778 8:0.055555556 11:0.027777778 12:0.055555556 13:0.013888889 15:0.027777778 16:0.18055556 17:0.027777778 18:0.013888889 19:0.013888889 20:0.041666667 21:0.027777778 23:0.069444444 24:0.097222222 26:0.027777778 28:0.013888889 29:0.013888889 30:0.041666667 32:0.15277778 
-2.828427125 3:0.015384615 4:0.015384615 6:0.030769231 7:0.015384615 8:0.092307692 9:0.015384615 10:0.030769231 11:0.015384615 12:0.076923077 14:0.015384615 15:0.015384615 16:0.13846154 21:0.015384615 22:0.015384615 23:0.061538462 24:0.12307692 25:0.015384615 26:0.030769231 27:0.015384615 28:0.030769231 29:0.046153846 30:0.015384615 31:0.030769231 32:0.12307692 
-2.828427125 1:0.017857143 3:0.017857143 4:0.017857143 5:0.017857143 6:0.017857143 7:0.017857143 8:0.089285714 9:0.017857143 10:0.017857143 12:0.071428571 13:0.017857143 15:0.017857143 16:0.14285714 18:0.035714286 20:0.017857143 21:0.017857143 22:0.017857143 23:0.053571429 24:0.10714286 25:0.017857143 26:0.017857143 27:0.017857143 28:0.017857143 29:0.017857143 30:0.017857143 31:0.035714286 32:0.125 
-2.828427125 1:0.013333333 4:0.026666667 5:0.013333333 6:0.04 7:0.013333333 8:0.066666667 9:0.013333333 10:0.026666667 12:0.093333333 13:0.026666667 15:0.026666667 16:0.14666667 17:0.026666667 18:0.026666667 21:0.026666667 23:0.053333333 24:0.17333333 25:0.026666667 26:0.013333333 28:0.013333333 31:0.04 32:0.093333333 
-2.828427125 2:0.04 4:0.02 5:0.02 8:0.06 10:0.02 11:0.02 12:0.12 14:0.04 15:0.04 16:0.12 20:0.02 21:0.02 22:0.04 23:0.1 24:0.1 27:0.02 28:0.02 29:0.02 30:0.04 31:0.04 32:0.08 
-1.39112138774118 1:0.015384615 2:0.015384615 4:0.030769231 8:0.092307692 11:0.015384615 12:0.061538462 15:0.076923077 16:0.076923077 19:0.015384615 20:0.046153846 21:0.015384615 22:0.015384615 23:0.046153846 24:0.046153846 26:0.092307692 28:0.030769231 29:0.092307692 30:0.046153846 31:0.046153846 32:0.12307692 
-2.828427125 1:0.01754386 4:0.035087719 5:0.01754386 6:0.052631579 7:0.01754386 8:0.10526316 9:0.035087719 12:0.052631579 15:0.035087719 16:0.14035088 17:0.052631579 20:0.035087719 23:0.052631579 24:0.087719298 25:0.01754386 26:0.01754386 30:0.01754386 31:0.01754386 32:0.19298246 
-2.415283562898074 1:0.017241379 2:0.051724138 4:0.017241379 5:0.034482759 7:0.017241379 8:0.068965517 9:0.034482759 10:0.017241379 12:0.051724138 13:0.051724138 14:0.034482759 15:0.068965517 16:0.13793103 17:0.017241379 20:0.051724138 23:0.034482759 24:0.12068966 26:0.017241379 28:0.034482759 31:0.034482759 32:0.086206897 
-0.768260885070284 1:0.028571429 2:0.028571429 4:0.028571429 5:0.042857143 6:0.028571429 7:0.028571429 8:0.057142857 10:0.028571429 11:0.014285714 12:0.057142857 13:0.014285714 14:0.014285714 15:0.014285714 16:0.15714286 17:0.028571429 19:0.014285714 20:0.014285714 22:0.028571429 23:0.042857143 24:0.1 25:0.042857143 28:0.028571429 31:0.042857143 32:0.11428571 
-2.828427125 1:0.016393443 2:0.032786885 4:0.049180328 5:0.016393443 6:0.016393443 7:0.049180328 8:0.06557377 12:0.032786885 13:0.016393443 14:0.016393443 15:0.032786885 16:0.16393443 17:0.016393443 20:0.032786885 21:0.016393443 23:0.032786885 24:0.098360656 25:0.016393443 26:0.016393443 28:0.032786885 30:0.032786885 31:0.032786885 32:0.16393443 
-2.747994142589344 1:0.06779661 2:0.033898305 4:0.033898305 7:0.050847458 8:0.06779661 11:0.016949153 12:0.016949153 13:0.016949153 15:0.033898305 16:0.11864407 18:0.050847458 19:0.016949153 20:0.016949153 21:0.050847458 22:0.016949153 23:0.016949153 24:0.10169492 25:0.016949153 26:0.016949153 28:0.06779661 29:0.033898305 30:0.016949153 31:0.033898305 32:0.084745763 
-2.828427125 2:0.050847458 5:0.033898305 6:0.033898305 7:0.033898305 8:0.11864407 11:0.016949153 12:0.084745763 13:0.016949153 14:0.016949153 16:0.15254237 20:0.033898305 23:0.050847458 24:0.050847458 28:0.033898305 30:0.033898305 31:0.06779661 32:0.16949153 
-2.828427125 2:0.019230769 4:0.057692308 6:0.057692308 7:0.019230769 8:0.11538462 9:0.019230769 12:0.057692308 13:0.019230769 14:0.019230769 15:0.057692308 16:0.076923077 20:0.038461538 23:0.019230769 24:0.096153846 25:0.038461538 26:0.019230769 28:0.019230769 29:0.019230769 30:0.019230769 31:0.076923077 32:0.13461538 
-2.828427125 1:0.012658228 2:0.025316456 4:0.012658228 5:0.012658228 7:0.037974684 8:0.11392405 10:0.012658228 12:0.025316456 13:0.025316456 15:0.075949367 16:0.11392405 20:0.025316456 21:0.012658228 22:0.050632911 23:0.012658228 24:0.088607595 25:0.025316456 26:0.037974684 27:0.012658228 28:0.075949367 29:0.025316456 31:0.012658228 32:0.15189873 
-2.828427125 4:0.032786885 5:0.016393443 6:0.016393443 7:0.06557377 8:0.081967213 9:0.016393443 10:0.016393443 12:0.016393443 15:0.049180328 16:0.14754098 17:0.016393443 20:0.016393443 22:0.032786885 23:0.016393443 24:0.098360656 25:0.016393443 26:0.016393443 28:0.098360656 29:0.016393443 30:0.049180328 31:0.032786885 32:0.13114754 
-2.828427125 2:0.047619048 4:0.031746032 5:0.031746032 6:0.031746032 7:0.047619048 8:0.079365079 12:0.047619048 15:0.047619048 16:0.11111111 17:0.031746032 20:0.031746032 21:0.047619048 22:0.015873016 23:0.031746032 24:0.12698413 25:0.031746032 26:0.031746032 28:0.047619048 31:0.031746032 32:0.095238095 
-2.828427125 1:0.015873016 6:0.031746032 8:0.079365079 9:0.015873016 10:0.031746032 12:0.047619048 13:0.015873016 15:0.063492063 16:0.19047619 17:0.015873016 18:0.015873016 19:0.015873016 20:0.063492063 21:0.047619048 22:0.015873016 23:0.047619048 24:0.15873016 25:0.015873016 26:0.015873016 28:0.015873016 31:0.015873016 32:0.063492063 
-0.04306292584694005 1:0.015384615 4:0.030769231 6:0.076923077 7:0.046153846 8:0.12307692 10:0.015384615 12:0.030769231 13:0.015384615 15:0.061538462 16:0.092307692 17:0.015384615 20:0.030769231 21:0.015384615 22:0.015384615 23:0.030769231 24:0.061538462 25:0.015384615 26:0.030769231 28:0.076923077 29:0.015384615 31:0.030769231 32:0.15384615 
-2.828427125 1:0.014285714 2:0.014285714 6:0.014285714 7:0.057142857 8:0.11428571 10:0.014285714 11:0.028571429 12:0.042857143 13:0.028571429 14:0.057142857 15:0.042857143 16:0.11428571 20:0.014285714 22:0.028571429 24:0.057142857 28:0.1 30:0.028571429 31:0.057142857 32:0.17142857 
-2.828427125 1:0.016393443 2:0.049180328 4:0.049180328 5:0.016393443 6:0.016393443 8:0.081967213 12:0.06557377 13:0.032786885 14:0.016393443 15:0.032786885 16:0.14754098 20:0.016393443 21:0.016393443 23:0.032786885 24:0.098360656 25:0.032786885 26:0.032786885 28:0.016393443 29:0.016393443 31:0.081967213 32:0.13114754 
-0.7622225069243446 1:0.011904762 2:0.011904762 3:0.011904762 4:0.023809524 5:0.023809524 7:0.023809524 8:0.023809524 9:0.035714286 10:0.047619048 12:0.05952381 13:0.035714286 14:0.05952381 15:0.05952381 16:0.1547619 18:0.011904762 20:0.047619048 23:0.047619048 24:0.1547619 26:0.011904762 27:0.011904762 28:0.023809524 29:0.023809524 30:0.011904762 31:0.023809524 32:0.047619048 
-1.8661253796907 2:0.018518519 4:0.037037037 5:0.018518519 6:0.11111111 7:0.055555556 8:0.074074074 11:0.018518519 12:0.055555556 14:0.018518519 15:0.037037037 16:0.11111111 17:0.018518519 19:0.018518519 20:0.037037037 22:0.037037037 23:0.037037037 24:0.092592593 28:0.055555556 31:0.055555556 32:0.092592593 
-2.828427125 1:0.021276596 2:0.021276596 6:0.021276596 7:0.063829787 8:0.10638298 11:0.021276596 12:0.042553191 13:0.021276596 14:0.021276596 15:0.021276596 16:0.14893617 17:0.021276596 19:0.021276596 20:0.021276596 22:0.021276596 24:0.12765957 25:0.021276596 28:0.042553191 30:0.021276596 31:0.021276596 32:0.17021277 
-1.178614130344603 1:0.010526316 2:0.031578947 4:0.031578947 5:0.010526316 6:0.042105263 7:0.031578947 8:0.11578947 10:0.010526316 11:0.021052632 12:0.031578947 13:0.031578947 14:0.021052632 15:0.063157895 16:0.063157895 18:0.010526316 20:0.052631579 21:0.010526316 22:0.010526316 23:0.042105263 24:0.052631579 25:0.021052632 26:0.031578947 28:0.052631579 29:0.031578947 30:0.010526316 31:0.031578947 32:0.12631579 
-2.828427125 1:0.014084507 2:0.028169014 4:0.014084507 7:0.028169014 8:0.070422535 9:0.014084507 10:0.028169014 11:0.014084507 12:0.028169014 13:0.014084507 14:0.028169014 15:0.056338028 16:0.12676056 17:0.014084507 19:0.028169014 20:0.056338028 21:0.014084507 23:0.014084507 24:0.098591549 25:0.042253521 26:0.042253521 28:0.028169014 29:0.070422535 30:0.014084507 31:0.028169014 32:0.084507042 
-2.828427125 1:0.015625 4:0.03125 5:0.03125 8:0.078125 9:0.03125 10:0.03125 12:0.0625 14:0.03125 15:0.09375 16:0.09375 18:0.015625 20:0.0625 22:0.015625 23:0.046875 24:0.09375 25:0.03125 26:0.015625 28:0.015625 29:0.03125 30:0.03125 31:0.03125 32:0.109375 
-2.230384836656399 2:0.034482759 5:0.017241379 6:0.034482759 7:0.017241379 8:0.051724138 12:0.15517241 13:0.017241379 15:0.034482759 16:0.13793103 18:0.017241379 21:0.017241379 22:0.017241379 23:0.12068966 24:0.15517241 26:0.017241379 28:0.017241379 29:0.017241379 30:0.017241379 32:0.10344828 
-2.828427125 1:0.03125 2:0.015625 3:0.015625 5:0.03125 6:0.015625 8:0.09375 10:0.015625 12:0.046875 14:0.03125 15:0.046875 16:0.1875 17:0.015625 18:0.015625 20:0.0625 22:0.015625 23:0.0625 24:0.078125 27:0.015625 28:0.015625 29:0.015625 30:0.015625 31:0.015625 32:0.140625 
-2.828427125 1:0.038961039 2:0.025974026 4:0.038961039 5:0.038961039 6:0.012987013 8:0.11688312 9:0.012987013 10:0.038961039 11:0.012987013 12:0.025974026 13:0.025974026 15:0.038961039 16:0.11688312 18:0.012987013 19:0.012987013 20:0.025974026 22:0.012987013 23:0.012987013 24:0.064935065 25:0.038961039 26:0.012987013 28:0.025974026 29:0.025974026 31:0.064935065 32:0.14285714 
-2.828427125 4:0.020833333 8:0.083333333 10:0.020833333 12:0.083333333 15:0.041666667 16:0.16666667 17:0.020833333 18:0.020833333 20:0.0625 21:0.020833333 22:0.020833333 23:0.10416667 24:0.083333333 25:0.020833333 29:0.020833333 30:0.0625 31:0.020833333 32:0.125 
-2.828427125 1:0.028985507 2:0.057971014 4:0.043478261 5:0.014492754 7:0.043478261 8:0.10144928 12:0.014492754 13:0.014492754 15:0.014492754 16:0.13043478 17:0.043478261 18:0.043478261 20:0.014492754 21:0.043478261 23:0.028985507 24:0.11594203 26:0.014492754 28:0.072463768 29:0.043478261 31:0.057971014 32:0.057971014 
-2.828427125 1:0.014285714 4:0.028571429 5:0.014285714 6:0.042857143 8:0.1 9:0.014285714 10:0.042857143 12:0.071428571 13:0.014285714 15:0.071428571 16:0.085714286 17:0.042857143 20:0.071428571 23:0.028571429 24:0.1 25:0.014285714 26:0.014285714 29:0.028571429 30:0.042857143 31:0.071428571 32:0.085714286 
-1.750757009176755 1:0.028169014 2:0.014084507 4:0.028169014 5:0.014084507 6:0.014084507 7:0.028169014 8:0.070422535 10:0.014084507 12:0.070422535 14:0.042253521 15:0.084507042 16:0.084507042 18:0.028169014 20:0.028169014 21:0.028169014 22:0.028169014 23:0.042253521 24:0.12676056 25:0.014084507 28:0.070422535 29:0.014084507 30:0.028169014 31:0.042253521 32:0.056338028 
-2.828427125 1:0.020833333 2:0.03125 4:0.03125 5:0.020833333 7:0.041666667 8:0.14583333 9:0.020833333 10:0.010416667 12:0.041666667 13:0.010416667 14:0.052083333 15:0.03125 16:0.083333333 17:0.020833333 20:0.020833333 22:0.010416667 23:0.020833333 24:0.072916667 25:0.010416667 26:0.010416667 28:0.052083333 29:0.020833333 30:0.010416667 31:0.052083333 32:0.15625 
-2.828427125 4:0.037037037 8:0.092592593 12:0.037037037 13:0.018518519 14:0.055555556 15:0.037037037 16:0.22222222 18:0.018518519 20:0.037037037 24:0.16666667 25:0.037037037 28:0.018518519 30:0.018518519 31:0.092592593 32:0.11111111 
-2.295665318456371 1:0.048387097 4:0.032258065 6:0.016129032 8:0.080645161 9:0.032258065 10:0.048387097 11:0.016129032 12:0.064516129 14:0.016129032 15:0.064516129 16:0.080645161 17:0.032258065 20:0.032258065 22:0.016129032 23:0.048387097 24:0.096774194 25:0.032258065 28:0.016129032 29:0.048387097 30:0.032258065 31:0.032258065 32:0.11290323 
-2.828427125 3:0.018181818 4:0.036363636 6:0.054545455 7:0.018181818 8:0.072727273 10:0.036363636 12:0.036363636 15:0.054545455 16:0.16363636 20:0.054545455 22:0.054545455 23:0.018181818 24:0.10909091 27:0.018181818 28:0.036363636 29:0.036363636 30:0.018181818 31:0.072727273 32:0.090909091 
-2.828427125 6:0.012048193 7:0.012048193 8:0.048192771 9:0.012048193 10:0.024096386 11:0.024096386 12:0.096385542 14:0.036144578 15:0.036144578 16:0.15662651 17:0.012048193 18:0.024096386 19:0.024096386 20:0.036144578 21:0.024096386 22:0.036144578 23:0.084337349 24:0.14457831 26:0.012048193 28:0.012048193 29:0.036144578 30:0.024096386 31:0.012048193 32:0.060240964 
-0.7446002819462836 2:0.030769231 4:0.015384615 5:0.046153846 6:0.015384615 8:0.061538462 9:0.015384615 10:0.015384615 12:0.061538462 15:0.076923077 16:0.16923077 17:0.015384615 20:0.061538462 21:0.015384615 22:0.030769231 23:0.076923077 24:0.092307692 25:0.015384615 26:0.015384615 28:0.015384615 30:0.015384615 32:0.13846154 
-0.891817419673791 2:0.015625 4:0.015625 5:0.015625 6:0.015625 7:0.015625 8:0.0625 10:0.078125 11:0.046875 12:0.046875 14:0.046875 15:0.0625 16:0.09375 19:0.03125 20:0.0625 21:0.03125 22:0.015625 23:0.015625 24:0.0625 26:0.015625 27:0.015625 28:0.015625 29:0.0625 30:0.015625 31:0.046875 32:0.09375 
-0.2361517120000528 1:0.013888889 2:0.013888889 5:0.013888889 6:0.027777778 7:0.055555556 8:0.041666667 9:0.013888889 12:0.083333333 13:0.013888889 15:0.055555556 16:0.125 17:0.027777778 18:0.027777778 20:0.041666667 22:0.069444444 23:0.055555556 24:0.125 25:0.027777778 28:0.055555556 29:0.013888889 30:0.013888889 31:0.013888889 32:0.069444444 
-2.828427125 1:0.028985507 2:0.028985507 4:0.014492754 6:0.028985507 7:0.028985507 8:0.10144928 12:0.043478261 13:0.014492754 14:0.028985507 15:0.057971014 16:0.13043478 17:0.028985507 18:0.014492754 20:0.057971014 21:0.028985507 22:0.014492754 23:0.028985507 24:0.10144928 26:0.014492754 28:0.043478261 29:0.014492754 31:0.043478261 32:0.10144928 
-2.828427125 1:0.028169014 2:0.014084507 5:0.014084507 7:0.028169014 8:0.11267606 9:0.014084507 10:0.028169014 11:0.014084507 12:0.042253521 13:0.028169014 14:0.028169014 15:0.070422535 16:0.084507042 17:0.014084507 20:0.042253521 21:0.014084507 23:0.014084507 24:0.084507042 26:0.042253521 27:0.014084507 28:0.070422535 29:0.028169014 30:0.042253521 31:0.042253521 32:0.084507042 
-2.828427125 1:0.033333333 2:0.033333333 4:0.033333333 5:0.05 7:0.033333333 8:0.066666667 10:0.016666667 12:0.066666667 15:0.033333333 16:0.13333333 18:0.016666667 20:0.016666667 21:0.033333333 22:0.016666667 23:0.033333333 24:0.1 25:0.016666667 26:0.033333333 28:0.033333333 29:0.016666667 31:0.05 32:0.13333333 
-2.247427389729181 1:0.015625 2:0.015625 5:0.046875 6:0.015625 7:0.015625 8:0.109375 9:0.015625 10:0.015625 12:0.09375 14:0.015625 15:0.078125 16:0.0625 17:0.015625 20:0.078125 21:0.015625 22:0.03125 23:0.078125 24:0.078125 25:0.015625 26:0.046875 29:0.015625 32:0.125 
-2.828427125 1:0.019607843 4:0.019607843 5:0.019607843 8:0.078431373 9:0.019607843 11:0.019607843 15:0.078431373 16:0.19607843 18:0.039215686 20:0.058823529 21:0.039215686 23:0.019607843 24:0.17647059 25:0.039215686 26:0.019607843 28:0.019607843 30:0.019607843 32:0.11764706 
-2.828427125 2:0.039215686 4:0.019607843 5:0.019607843 6:0.0098039216 7:0.049019608 8:0.068627451 12:0.098039216 13:0.0098039216 14:0.039215686 15:0.029411765 16:0.10784314 18:0.0098039216 20:0.039215686 21:0.029411765 22:0.0098039216 23:0.088235294 24:0.068627451 25:0.0098039216 26:0.019607843 28:0.039215686 29:0.0098039216 30:0.049019608 31:0.029411765 32:0.10784314 
-1.751444103512421 1:0.014084507 2:0.014084507 4:0.056338028 5:0.014084507 6:0.028169014 7:0.014084507 8:0.056338028 9:0.014084507 11:0.014084507 12:0.042253521 13:0.014084507 15:0.070422535 16:0.098591549 17:0.014084507 18:0.042253521 19:0.014084507 20:0.056338028 21:0.014084507 22:0.042253521 23:0.042253521 24:0.056338028 26:0.014084507 28:0.028169014 29:0.028169014 30:0.042253521 31:0.056338028 32:0.098591549 
-2.828427125 1:0.018181818 2:0.018181818 5:0.036363636 8:0.090909091 9:0.018181818 10:0.018181818 12:0.036363636 13:0.018181818 15:0.072727273 16:0.2 18:0.018181818 20:0.054545455 23:0.018181818 24:0.16363636 25:0.018181818 26:0.018181818 28:0.018181818 29:0.018181818 31:0.018181818 32:0.12727273 
-2.828427125 2:0.057142857 4:0.014285714 5:0.014285714 6:0.028571429 7:0.014285714 8:0.1 9:0.014285714 12:0.028571429 13:0.014285714 14:0.014285714 15:0.085714286 16:0.14285714 17:0.028571429 20:0.057142857 21:0.014285714 22:0.014285714 23:0.028571429 24:0.1 25:0.014285714 28:0.042857143 29:0.014285714 31:0.014285714 32:0.14285714 
-1.375885889864635 1:0.029850746 4:0.014925373 5:0.014925373 8:0.029850746 9:0.014925373 10:0.029850746 12:0.074626866 14:0.044776119 15:0.044776119 16:0.2238806 18:0.014925373 20:0.044776119 21:0.014925373 22:0.029850746 23:0.089552239 24:0.17910448 25:0.014925373 28:0.014925373 29:0.014925373 31:0.014925373 32:0.044776119 
-2.828427125 4:0.035714286 6:0.053571429 7:0.017857143 8:0.089285714 12:0.053571429 15:0.035714286 16:0.17857143 18:0.053571429 20:0.017857143 21:0.035714286 23:0.053571429 24:0.14285714 28:0.053571429 29:0.017857143 30:0.017857143 31:0.053571429 32:0.089285714 
-2.828427125 1:0.025316456 2:0.012658228 4:0.063291139 6:0.025316456 8:0.088607595 12:0.050632911 15:0.050632911 16:0.12658228 17:0.025316456 18:0.025316456 20:0.037974684 21:0.037974684 22:0.050632911 23:0.050632911 24:0.10126582 25:0.025316456 30:0.012658228 31:0.050632911 32:0.13924051 
-1.007520041284813 4:0.01754386 5:0.01754386 6:0.035087719 8:0.052631579 9:0.01754386 10:0.01754386 11:0.01754386 12:0.052631579 14:0.087719298 15:0.087719298 16:0.1754386 20:0.070175439 23:0.070175439 24:0.12280702 28:0.035087719 30:0.01754386 31:0.01754386 32:0.087719298 
-2.828427125 1:0.016666667 2:0.033333333 5:0.033333333 6:0.016666667 7:0.033333333 8:0.11666667 10:0.016666667 12:0.033333333 15:0.083333333 16:0.1 17:0.033333333 18:0.016666667 20:0.066666667 21:0.016666667 23:0.016666667 24:0.066666667 25:0.016666667 26:0.016666667 28:0.05 29:0.033333333 30:0.016666667 31:0.016666667 32:0.15 
-1.884696908116855 4:0.018181818 6:0.054545455 8:0.018181818 11:0.036363636 12:0.10909091 14:0.036363636 15:0.090909091 16:0.12727273 19:0.018181818 20:0.054545455 22:0.072727273 23:0.090909091 24:0.18181818 30:0.036363636 32:0.054545455 
-2.828427125 4:0.019607843 5:0.019607843 7:0.019607843 8:0.098039216 11:0.019607843 15:0.058823529 16:0.21568627 20:0.078431373 22:0.058823529 23:0.019607843 24:0.15686275 26:0.019607843 28:0.039215686 30:0.039215686 31:0.039215686 32:0.098039216 
-1.741034025085139 4:0.016393443 6:0.032786885 7:0.016393443 8:0.032786885 9:0.016393443 10:0.032786885 11:0.016393443 12:0.049180328 13:0.016393443 15:0.032786885 16:0.21311475 19:0.016393443 20:0.049180328 21:0.016393443 23:0.049180328 24:0.14754098 25:0.032786885 26:0.016393443 28:0.032786885 29:0.016393443 30:0.06557377 31:0.049180328 32:0.032786885 
-2.828427125 2:0.028169014 4:0.028169014 5:0.014084507 6:0.042253521 7:0.014084507 8:0.056338028 10:0.014084507 11:0.014084507 12:0.056338028 13:0.014084507 14:0.070422535 15:0.042253521 16:0.16901408 17:0.014084507 19:0.028169014 20:0.042253521 21:0.014084507 22:0.014084507 23:0.042253521 24:0.098591549 25:0.014084507 28:0.028169014 31:0.056338028 32:0.084507042 
-2.244244027690096 1:0.015873016 2:0.015873016 5:0.015873016 6:0.031746032 7:0.015873016 8:0.079365079 11:0.015873016 12:0.015873016 15:0.063492063 16:0.19047619 18:0.015873016 20:0.095238095 21:0.015873016 22:0.015873016 23:0.047619048 24:0.079365079 25:0.015873016 26:0.047619048 27:0.015873016 28:0.015873016 29:0.047619048 32:0.12698413 
-2.828427125 4:0.014705882 6:0.058823529 7:0.014705882 8:0.14705882 12:0.058823529 14:0.044117647 15:0.088235294 16:0.073529412 18:0.029411765 20:0.073529412 21:0.014705882 23:0.014705882 24:0.073529412 25:0.014705882 26:0.014705882 28:0.029411765 29:0.029411765 31:0.058823529 32:0.14705882 
-2.650654108969048 1:0.026315789 2:0.026315789 4:0.026315789 5:0.052631579 6:0.013157895 7:0.013157895 8:0.11842105 10:0.026315789 11:0.013157895 12:0.026315789 13:0.013157895 14:0.013157895 15:0.065789474 16:0.092105263 17:0.039473684 19:0.013157895 20:0.052631579 22:0.026315789 24:0.052631579 25:0.013157895 26:0.013157895 28:0.039473684 30:0.026315789 31:0.065789474 32:0.13157895 
-2.828427125 2:0.054054054 4:0.013513514 5:0.040540541 7:0.013513514 8:0.10810811 9:0.013513514 12:0.013513514 13:0.013513514 14:0.013513514 15:0.067567568 16:0.16216216 17:0.027027027 18:0.027027027 20:0.067567568 21:0.027027027 23:0.027027027 24:0.10810811 25:0.013513514 28:0.040540541 30:0.013513514 31:0.027027027 32:0.10810811 
-2.828427125 1:0.035087719 4:0.035087719 5:0.035087719 7:0.01754386 8:0.12280702 9:0.01754386 10:0.01754386 12:0.052631579 15:0.01754386 16:0.14035088 17:0.035087719 18:0.01754386 22:0.01754386 23:0.052631579 24:0.10526316 25:0.01754386 26:0.01754386 28:0.01754386 29:0.01754386 31:0.01754386 32:0.19298246 
